307 16
1 -0.09999999999999998 -0.09999999999999998 0.10000000000000009 -0.05555555555555558 0.0 0.2272727272727273 -0.038461538461538436 0.20000000000000007 -0.125 0.13636363636363635 0.125 0.20000000000000007 -0.09999999999999998 0.13636363636363635 0.08333333333333326 0.08333333333333326 
0 -0.09999999999999998 0.16666666666666663 0.10000000000000009 0.38888888888888884 0.0 0.31818181818181824 0.03846153846153855 -0.19999999999999996 0.125 0.40909090909090917 0.0 0.10000000000000009 -0.3 0.2272727272727273 -0.08333333333333337 0.25 
0 -0.19999999999999996 -0.23333333333333334 -0.09999999999999998 0.16666666666666663 -0.25 0.045454545454545414 0.11538461538461542 0.4 0.375 0.13636363636363635 0.25 0.20000000000000007 -0.3 0.2272727272727273 0.25 0.25 
1 0.10000000000000009 0.16666666666666663 0.30000000000000005 0.38888888888888884 0.08333333333333326 0.13636363636363635 0.11538461538461542 0.10000000000000009 0.0 0.045454545454545414 0.0 0.0 0.0 0.2272727272727273 0.08333333333333326 0.08333333333333326 
0 -0.19999999999999996 -0.16666666666666669 -0.19999999999999996 -0.05555555555555558 -0.25 0.13636363636363635 0.03846153846153855 0.0 0.125 0.045454545454545414 0.25 0.10000000000000009 -0.3 0.2272727272727273 0.0 0.33333333333333326 
1 0.10000000000000009 0.16666666666666663 0.0 0.16666666666666663 -0.25 0.13636363636363635 0.03846153846153855 0.0 0.0 0.31818181818181824 0.0 0.4 0.10000000000000009 -0.045454545454545414 0.0 0.41666666666666663 
0 -0.09999999999999998 0.033333333333333326 0.0 0.16666666666666663 -0.08333333333333337 0.2272727272727273 0.11538461538461542 0.10000000000000009 0.125 0.2272727272727273 0.25 0.20000000000000007 -0.19999999999999996 0.13636363636363635 -0.08333333333333337 0.25 
1 -0.09999999999999998 0.09999999999999998 0.10000000000000009 0.2777777777777777 0.0 0.31818181818181824 0.03846153846153855 -0.09999999999999998 0.125 0.40909090909090917 0.0 0.20000000000000007 -0.19999999999999996 0.13636363636363635 -0.16666666666666669 0.41666666666666663 
0 -0.09999999999999998 0.09999999999999998 0.10000000000000009 0.16666666666666663 0.08333333333333326 0.31818181818181824 -0.038461538461538436 -0.09999999999999998 0.0 0.045454545454545414 0.375 0.20000000000000007 0.20000000000000007 0.31818181818181824 0.16666666666666663 0.0 
0 -0.19999999999999996 0.033333333333333326 0.0 0.16666666666666663 -0.16666666666666669 0.31818181818181824 -0.038461538461538436 -0.09999999999999998 0.25 0.40909090909090917 0.125 0.10000000000000009 -0.3 0.2272727272727273 0.0 0.25 
1 -0.3 -0.23333333333333334 -0.09999999999999998 -0.16666666666666669 -0.33333333333333337 0.2272727272727273 0.03846153846153855 -0.09999999999999998 0.125 0.31818181818181824 0.125 0.20000000000000007 -0.3 0.13636363636363635 -0.16666666666666669 0.33333333333333326 
1 -0.19999999999999996 -0.09999999999999998 -0.09999999999999998 -0.05555555555555558 -0.25 0.2272727272727273 0.11538461538461542 0.0 0.25 0.13636363636363635 0.125 0.10000000000000009 -0.19999999999999996 0.13636363636363635 -0.08333333333333337 0.16666666666666663 
1 -0.09999999999999998 0.23333333333333328 0.0 0.38888888888888884 -0.25 0.045454545454545414 0.2692307692307693 0.5 0.0 0.13636363636363635 0.0 0.30000000000000005 -0.19999999999999996 0.13636363636363635 -0.08333333333333337 0.41666666666666663 
1 -0.19999999999999996 -0.16666666666666669 -0.09999999999999998 0.16666666666666663 -0.25 0.045454545454545414 0.34615384615384626 0.5 0.0 0.13636363636363635 -0.125 0.4 -0.19999999999999996 0.13636363636363635 -0.08333333333333337 0.33333333333333326 
0 -0.3 -0.23333333333333334 -0.09999999999999998 -0.16666666666666669 -0.33333333333333337 0.31818181818181824 0.03846153846153855 -0.3 0.25 0.40909090909090917 -0.125 0.10000000000000009 -0.3 0.13636363636363635 -0.25 0.33333333333333326 
1 -0.09999999999999998 0.033333333333333326 0.10000000000000009 0.16666666666666663 -0.08333333333333337 0.31818181818181824 0.11538461538461542 -0.09999999999999998 0.25 0.2272727272727273 -0.125 0.30000000000000005 -0.09999999999999998 -0.045454545454545414 -0.08333333333333337 0.41666666666666663 
1 -0.09999999999999998 0.23333333333333328 0.10000000000000009 0.5 -0.08333333333333337 0.13636363636363635 0.11538461538461542 0.0 0.375 0.045454545454545414 0.125 0.20000000000000007 -0.09999999999999998 -0.045454545454545414 0.08333333333333326 0.25 
1 -0.19999999999999996 -0.23333333333333334 0.0 -0.16666666666666669 -0.25 0.2272727272727273 0.03846153846153855 -0.19999999999999996 0.125 0.31818181818181824 0.0 0.20000000000000007 -0.3 0.13636363636363635 -0.16666666666666669 0.33333333333333326 
1 -0.19999999999999996 -0.16666666666666669 -0.09999999999999998 0.16666666666666663 -0.25 0.045454545454545414 0.34615384615384626 0.4 0.0 0.13636363636363635 -0.25 0.4 -0.19999999999999996 0.13636363636363635 -0.08333333333333337 0.41666666666666663 
0 -0.3 -0.23333333333333334 -0.09999999999999998 -0.2777777777777778 -0.33333333333333337 0.2272727272727273 0.11538461538461542 -0.19999999999999996 0.125 0.40909090909090917 0.0 0.20000000000000007 -0.3 0.045454545454545414 -0.25 0.33333333333333326 
0 -0.3 -0.3 -0.19999999999999996 -0.2777777777777778 -0.33333333333333337 0.2272727272727273 0.03846153846153855 -0.19999999999999996 0.125 0.31818181818181824 0.0 0.20000000000000007 -0.3 0.13636363636363635 -0.16666666666666669 0.33333333333333326 
1 -0.19999999999999996 -0.16666666666666669 -0.09999999999999998 -0.16666666666666669 -0.25 0.13636363636363635 0.03846153846153855 0.0 0.125 0.045454545454545414 0.25 0.10000000000000009 -0.3 0.2272727272727273 0.0 0.33333333333333326 
1 0.20000000000000007 0.09999999999999998 0.5 0.38888888888888884 0.41666666666666663 0.13636363636363635 0.03846153846153855 -0.09999999999999998 0.0 0.13636363636363635 0.125 0.20000000000000007 0.20000000000000007 0.31818181818181824 0.08333333333333326 -0.08333333333333337 
1 0.0 -0.033333333333333326 0.10000000000000009 0.05555555555555558 -0.08333333333333337 0.2272727272727273 0.03846153846153855 0.10000000000000009 -0.125 0.2272727272727273 0.125 0.10000000000000009 -0.09999999999999998 0.13636363636363635 0.08333333333333326 0.16666666666666663 
0 -0.3 -0.43333333333333335 -0.3 -0.3888888888888889 -0.4166666666666667 0.13636363636363635 0.03846153846153855 0.20000000000000007 0.125 0.045454545454545414 0.125 0.20000000000000007 -0.4 0.2272727272727273 0.08333333333333326 0.33333333333333326 
0 -0.09999999999999998 -0.033333333333333326 0.10000000000000009 0.05555555555555558 0.0 0.31818181818181824 -0.038461538461538436 -0.09999999999999998 0.25 0.40909090909090917 0.125 0.20000000000000007 -0.3 0.2272727272727273 -0.08333333333333337 0.33333333333333326 
0 -0.09999999999999998 -0.033333333333333326 0.20000000000000007 0.16666666666666663 0.08333333333333326 0.2272727272727273 0.11538461538461542 -0.09999999999999998 0.0 0.13636363636363635 0.25 0.30000000000000005 0.10000000000000009 0.2272727272727273 0.16666666666666663 -0.08333333333333337 
0 0.30000000000000005 0.30000000000000005 0.20000000000000007 0.16666666666666663 0.0 0.2272727272727273 0.11538461538461542 -0.09999999999999998 0.125 0.31818181818181824 0.125 0.20000000000000007 0.20000000000000007 -0.045454545454545414 0.16666666666666663 0.08333333333333326 
1 -0.09999999999999998 -0.033333333333333326 0.20000000000000007 0.16666666666666663 0.08333333333333326 0.13636363636363635 0.03846153846153855 -0.19999999999999996 -0.125 0.13636363636363635 0.125 0.30000000000000005 0.10000000000000009 0.2272727272727273 0.0 0.0 
1 -0.09999999999999998 0.09999999999999998 0.10000000000000009 0.2777777777777777 0.0 0.13636363636363635 0.1923076923076923 0.0 0.25 0.2272727272727273 0.0 0.30000000000000005 -0.19999999999999996 0.045454545454545414 -0.08333333333333337 0.41666666666666663 
0 -0.3 -0.5 -0.3 -0.3888888888888889 -0.4166666666666667 0.13636363636363635 0.11538461538461542 0.20000000000000007 0.125 0.13636363636363635 0.25 0.20000000000000007 -0.4 0.2272727272727273 0.08333333333333326 0.16666666666666663 
1 -0.19999999999999996 0.033333333333333326 0.0 0.16666666666666663 -0.16666666666666669 0.045454545454545414 0.03846153846153855 0.0 0.25 0.045454545454545414 0.125 0.20000000000000007 -0.19999999999999996 0.13636363636363635 -0.08333333333333337 0.16666666666666663 
0 -0.19999999999999996 -0.033333333333333326 0.0 0.16666666666666663 0.0 0.13636363636363635 0.03846153846153855 0.0 0.0 0.13636363636363635 0.25 0.30000000000000005 0.10000000000000009 0.31818181818181824 0.08333333333333326 0.08333333333333326 
1 0.10000000000000009 0.16666666666666663 0.0 0.16666666666666663 -0.25 0.2272727272727273 -0.038461538461538436 -0.09999999999999998 0.125 0.40909090909090917 0.125 0.30000000000000005 0.10000000000000009 0.13636363636363635 0.08333333333333326 0.33333333333333326 
1 -0.09999999999999998 -0.09999999999999998 0.10000000000000009 -0.05555555555555558 -0.08333333333333337 0.2272727272727273 0.03846153846153855 0.20000000000000007 -0.125 0.2272727272727273 0.125 0.20000000000000007 -0.09999999999999998 0.13636363636363635 0.08333333333333326 0.33333333333333326 
1 -0.3 -0.3 -0.3 -0.3888888888888889 -0.33333333333333337 0.13636363636363635 0.03846153846153855 0.0 0.125 0.13636363636363635 0.25 0.10000000000000009 -0.4 0.2272727272727273 -0.08333333333333337 0.25 
0 -0.3 -0.23333333333333334 -0.09999999999999998 -0.16666666666666669 -0.25 0.31818181818181824 0.03846153846153855 -0.3 0.25 0.5 0.125 0.10000000000000009 -0.3 0.2272727272727273 -0.16666666666666669 0.25 
1 -0.4 -0.5 -0.4 -0.5 -0.5 0.045454545454545414 0.2692307692307693 0.10000000000000009 -0.375 0.13636363636363635 0.125 0.30000000000000005 -0.4 0.13636363636363635 -0.16666666666666669 0.33333333333333326 
0 0.0 0.16666666666666663 0.20000000000000007 0.38888888888888884 0.08333333333333326 0.2272727272727273 0.03846153846153855 0.20000000000000007 0.25 0.045454545454545414 0.25 0.0 -0.3 0.2272727272727273 0.08333333333333326 0.25 
0 -0.09999999999999998 0.09999999999999998 -0.09999999999999998 0.2777777777777777 -0.25 0.045454545454545414 0.03846153846153855 0.4 0.375 0.13636363636363635 0.25 0.20000000000000007 -0.3 0.2272727272727273 0.25 0.33333333333333326 
1 -0.09999999999999998 0.09999999999999998 0.0 0.16666666666666663 -0.08333333333333337 0.13636363636363635 0.11538461538461542 0.0 0.125 0.2272727272727273 0.125 0.30000000000000005 -0.19999999999999996 0.045454545454545414 0.0 0.25 
0 -0.09999999999999998 0.16666666666666663 0.10000000000000009 0.38888888888888884 0.08333333333333326 0.2272727272727273 0.03846153846153855 -0.09999999999999998 0.375 0.045454545454545414 0.25 0.10000000000000009 0.10000000000000009 0.2272727272727273 0.0 0.33333333333333326 
0 -0.09999999999999998 0.033333333333333326 -0.09999999999999998 0.16666666666666663 -0.25 0.045454545454545414 0.03846153846153855 0.4 0.375 0.13636363636363635 0.25 0.20000000000000007 -0.3 0.2272727272727273 0.25 0.33333333333333326 
0 -0.3 -0.23333333333333334 -0.09999999999999998 -0.16666666666666669 -0.25 0.2272727272727273 0.03846153846153855 0.0 0.0 0.2272727272727273 0.125 0.20000000000000007 -0.19999999999999996 0.13636363636363635 -0.16666666666666669 0.41666666666666663 
0 0.10000000000000009 0.09999999999999998 0.30000000000000005 0.2777777777777777 0.08333333333333326 0.2272727272727273 0.11538461538461542 0.0 0.125 0.13636363636363635 0.125 0.10000000000000009 -0.09999999999999998 0.2272727272727273 0.0 0.08333333333333326 
0 -0.19999999999999996 -0.033333333333333326 0.0 0.05555555555555558 -0.25 0.40909090909090917 0.03846153846153855 -0.09999999999999998 0.25 0.40909090909090917 -0.25 0.20000000000000007 -0.19999999999999996 0.13636363636363635 -0.16666666666666669 0.33333333333333326 
0 -0.19999999999999996 -0.16666666666666669 0.0 -0.16666666666666669 -0.16666666666666669 0.31818181818181824 0.03846153846153855 -0.19999999999999996 0.125 0.40909090909090917 0.125 0.20000000000000007 -0.3 0.2272727272727273 -0.08333333333333337 0.25 
1 -0.4 -0.5 -0.3 -0.5 -0.4166666666666667 0.045454545454545414 0.2692307692307693 0.20000000000000007 -0.25 0.13636363636363635 0.125 0.30000000000000005 -0.3 0.13636363636363635 -0.16666666666666669 0.25 
1 0.0 0.09999999999999998 0.30000000000000005 0.16666666666666663 -0.08333333333333337 0.5 -0.038461538461538436 -0.19999999999999996 0.25 0.5 -0.375 0.10000000000000009 -0.09999999999999998 -0.045454545454545414 -0.16666666666666669 0.33333333333333326 
1 -0.09999999999999998 0.033333333333333326 0.10000000000000009 0.16666666666666663 -0.08333333333333337 0.2272727272727273 0.1923076923076923 -0.09999999999999998 0.25 0.40909090909090917 0.125 0.0 -0.3 0.2272727272727273 0.0 0.25 
1 0.0 0.033333333333333326 0.20000000000000007 0.16666666666666663 0.0 0.13636363636363635 0.1923076923076923 0.0 0.25 0.40909090909090917 0.25 0.0 -0.19999999999999996 0.13636363636363635 0.08333333333333326 0.16666666666666663 
1 -0.3 -0.43333333333333335 -0.19999999999999996 -0.2777777777777778 -0.33333333333333337 0.045454545454545414 0.03846153846153855 -0.09999999999999998 0.125 0.045454545454545414 0.125 0.20000000000000007 0.0 0.13636363636363635 -0.25 0.16666666666666663 
1 0.0 0.23333333333333328 0.20000000000000007 0.38888888888888884 -0.08333333333333337 0.2272727272727273 0.1923076923076923 0.0 0.25 0.2272727272727273 0.125 0.30000000000000005 -0.19999999999999996 0.13636363636363635 0.0 0.41666666666666663 
0 -0.09999999999999998 0.033333333333333326 0.10000000000000009 0.16666666666666663 -0.16666666666666669 0.40909090909090917 0.11538461538461542 -0.19999999999999996 0.375 0.40909090909090917 -0.375 0.20000000000000007 -0.19999999999999996 0.045454545454545414 -0.16666666666666669 0.33333333333333326 
0 0.0 -0.033333333333333326 0.30000000000000005 0.16666666666666663 0.25 0.31818181818181824 -0.038461538461538436 -0.09999999999999998 0.0 0.13636363636363635 0.25 0.30000000000000005 0.20000000000000007 0.31818181818181824 0.16666666666666663 0.08333333333333326 
0 -0.09999999999999998 0.09999999999999998 0.10000000000000009 0.16666666666666663 0.16666666666666663 0.31818181818181824 0.03846153846153855 -0.09999999999999998 -0.125 0.045454545454545414 0.375 0.20000000000000007 0.10000000000000009 0.40909090909090917 0.08333333333333326 0.0 
0 -0.09999999999999998 0.033333333333333326 0.0 0.16666666666666663 -0.08333333333333337 0.13636363636363635 0.11538461538461542 0.0 0.0 0.13636363636363635 0.125 0.20000000000000007 -0.19999999999999996 0.2272727272727273 0.0 0.16666666666666663 
1 -0.09999999999999998 -0.23333333333333334 0.0 0.16666666666666663 -0.25 0.045454545454545414 0.2692307692307693 0.4 -0.125 0.13636363636363635 0.125 0.30000000000000005 -0.19999999999999996 0.2272727272727273 0.0 0.41666666666666663 
0 -0.3 -0.5 -0.3 -0.3888888888888889 -0.4166666666666667 0.13636363636363635 0.11538461538461542 0.20000000000000007 0.125 0.13636363636363635 0.25 0.20000000000000007 -0.4 0.2272727272727273 0.08333333333333326 0.16666666666666663 
1 -0.09999999999999998 -0.09999999999999998 0.10000000000000009 -0.05555555555555558 -0.16666666666666669 0.31818181818181824 0.11538461538461542 -0.09999999999999998 0.25 0.31818181818181824 -0.125 0.20000000000000007 -0.19999999999999996 0.045454545454545414 -0.16666666666666669 0.41666666666666663 
0 -0.09999999999999998 0.09999999999999998 -0.09999999999999998 0.2777777777777777 -0.08333333333333337 0.045454545454545414 0.11538461538461542 0.30000000000000005 0.25 0.13636363636363635 0.125 0.20000000000000007 -0.3 0.2272727272727273 0.08333333333333326 0.25 
1 -0.3 -0.23333333333333334 -0.09999999999999998 -0.16666666666666669 -0.33333333333333337 0.2272727272727273 0.03846153846153855 -0.09999999999999998 0.125 0.2272727272727273 0.125 0.20000000000000007 -0.3 0.13636363636363635 -0.16666666666666669 0.41666666666666663 
0 -0.4 -0.5 -0.3 -0.3888888888888889 -0.4166666666666667 0.13636363636363635 0.03846153846153855 0.20000000000000007 0.0 0.13636363636363635 0.25 0.20000000000000007 -0.4 0.2272727272727273 0.0 0.16666666666666663 
0 0.30000000000000005 0.16666666666666663 0.30000000000000005 0.05555555555555558 -0.08333333333333337 0.2272727272727273 0.1923076923076923 -0.19999999999999996 0.25 0.31818181818181824 -0.25 0.10000000000000009 0.20000000000000007 -0.13636363636363635 0.0 0.0 
0 -0.4 -0.5 -0.4 -0.3888888888888889 -0.4166666666666667 0.13636363636363635 0.03846153846153855 0.10000000000000009 0.0 0.045454545454545414 0.25 0.20000000000000007 -0.4 0.2272727272727273 0.0 0.25 
0 -0.19999999999999996 -0.16666666666666669 0.10000000000000009 -0.05555555555555558 -0.16666666666666669 0.13636363636363635 0.11538461538461542 0.0 0.0 0.2272727272727273 0.125 0.30000000000000005 -0.19999999999999996 0.045454545454545414 -0.16666666666666669 0.41666666666666663 
1 -0.09999999999999998 0.033333333333333326 0.0 0.16666666666666663 -0.16666666666666669 0.2272727272727273 0.03846153846153855 0.0 0.25 0.2272727272727273 0.125 0.30000000000000005 -0.19999999999999996 0.045454545454545414 0.0 0.41666666666666663 
0 -0.09999999999999998 -0.033333333333333326 0.10000000000000009 0.05555555555555558 -0.08333333333333337 0.2272727272727273 0.03846153846153855 0.20000000000000007 0.25 0.2272727272727273 0.25 0.30000000000000005 -0.19999999999999996 0.2272727272727273 0.0 0.41666666666666663 
1 -0.3 -0.43333333333333335 -0.19999999999999996 -0.2777777777777778 -0.33333333333333337 0.13636363636363635 0.11538461538461542 -0.09999999999999998 0.125 0.13636363636363635 0.125 0.10000000000000009 0.0 0.045454545454545414 -0.16666666666666669 0.16666666666666663 
1 -0.3 -0.43333333333333335 -0.19999999999999996 -0.3888888888888889 -0.33333333333333337 0.13636363636363635 0.03846153846153855 -0.09999999999999998 0.125 0.045454545454545414 0.125 0.20000000000000007 -0.3 0.045454545454545414 -0.16666666666666669 0.16666666666666663 
0 -0.09999999999999998 0.16666666666666663 0.10000000000000009 0.2777777777777777 -0.08333333333333337 0.5 -0.038461538461538436 -0.19999999999999996 0.5 0.40909090909090917 -0.125 0.20000000000000007 -0.3 0.2272727272727273 -0.08333333333333337 0.5 
0 -0.09999999999999998 0.033333333333333326 0.10000000000000009 0.16666666666666663 -0.08333333333333337 0.13636363636363635 0.03846153846153855 0.10000000000000009 0.25 0.31818181818181824 0.25 0.10000000000000009 -0.19999999999999996 0.2272727272727273 0.08333333333333326 0.16666666666666663 
0 -0.19999999999999996 -0.033333333333333326 0.0 0.05555555555555558 -0.08333333333333337 0.13636363636363635 0.11538461538461542 0.20000000000000007 0.125 0.13636363636363635 0.25 0.10000000000000009 -0.3 0.2272727272727273 0.0 0.25 
1 0.0 0.23333333333333328 0.0 0.38888888888888884 0.0 0.045454545454545414 0.11538461538461542 0.4 0.125 0.13636363636363635 0.25 0.30000000000000005 -0.19999999999999996 0.2272727272727273 -0.08333333333333337 0.5 
1 0.10000000000000009 0.16666666666666663 0.4 0.2777777777777777 0.16666666666666663 0.31818181818181824 0.11538461538461542 0.10000000000000009 0.25 0.2272727272727273 0.125 0.20000000000000007 0.0 0.31818181818181824 0.0 0.5 
0 -0.3 -0.3 -0.19999999999999996 -0.2777777777777778 -0.33333333333333337 0.13636363636363635 0.03846153846153855 0.0 0.125 0.13636363636363635 0.25 0.10000000000000009 -0.3 0.2272727272727273 -0.08333333333333337 0.25 
1 -0.09999999999999998 0.16666666666666663 0.0 0.2777777777777777 -0.25 -0.045454545454545414 0.34615384615384626 0.30000000000000005 0.0 0.13636363636363635 0.0 0.30000000000000005 -0.19999999999999996 0.13636363636363635 0.08333333333333326 0.41666666666666663 
0 -0.09999999999999998 -0.3666666666666667 -0.09999999999999998 -0.05555555555555558 -0.16666666666666669 0.13636363636363635 0.03846153846153855 0.0 0.125 0.045454545454545414 0.25 0.10000000000000009 -0.3 0.2272727272727273 0.08333333333333326 0.41666666666666663 
0 -0.09999999999999998 -0.09999999999999998 0.0 -0.05555555555555558 -0.16666666666666669 0.13636363636363635 0.1923076923076923 0.0 0.25 0.40909090909090917 0.25 0.10000000000000009 -0.3 0.2272727272727273 0.0 0.16666666666666663 
1 -0.19999999999999996 0.033333333333333326 -0.19999999999999996 0.16666666666666663 -0.25 0.045454545454545414 0.1923076923076923 0.30000000000000005 -0.125 0.13636363636363635 0.125 0.30000000000000005 -0.3 0.13636363636363635 -0.08333333333333337 0.41666666666666663 
1 -0.3 -0.09999999999999998 -0.3 -0.05555555555555558 -0.33333333333333337 0.045454545454545414 0.11538461538461542 0.30000000000000005 0.0 0.13636363636363635 0.125 0.20000000000000007 -0.3 0.13636363636363635 -0.16666666666666669 0.33333333333333326 
1 -0.09999999999999998 0.23333333333333328 -0.09999999999999998 0.38888888888888884 -0.25 0.045454545454545414 0.1923076923076923 0.5 0.125 0.13636363636363635 0.25 0.30000000000000005 -0.19999999999999996 0.2272727272727273 0.0 0.41666666666666663 
0 -0.19999999999999996 -0.3 -0.19999999999999996 -0.05555555555555558 -0.25 0.13636363636363635 0.03846153846153855 0.4 0.25 0.13636363636363635 0.25 0.20000000000000007 -0.3 0.2272727272727273 0.25 0.33333333333333326 
0 -0.3 -0.3 -0.19999999999999996 -0.3888888888888889 -0.33333333333333337 0.13636363636363635 0.03846153846153855 -0.09999999999999998 0.125 0.13636363636363635 0.25 0.10000000000000009 -0.4 0.2272727272727273 -0.08333333333333337 0.25 
0 0.30000000000000005 0.09999999999999998 0.10000000000000009 0.05555555555555558 -0.25 0.31818181818181824 0.03846153846153855 0.10000000000000009 0.25 0.40909090909090917 0.0 0.4 0.10000000000000009 0.045454545454545414 0.0 0.33333333333333326 
0 -0.09999999999999998 0.09999999999999998 0.10000000000000009 0.16666666666666663 0.0 0.13636363636363635 0.11538461538461542 0.10000000000000009 0.0 0.045454545454545414 0.0 0.10000000000000009 -0.09999999999999998 0.2272727272727273 0.0 0.08333333333333326 
0 -0.3 -0.43333333333333335 -0.3 -0.2777777777777778 -0.33333333333333337 0.13636363636363635 0.11538461538461542 0.30000000000000005 0.125 0.13636363636363635 0.25 0.20000000000000007 -0.3 0.2272727272727273 0.16666666666666663 0.25 
0 0.10000000000000009 0.16666666666666663 0.4 0.2777777777777777 0.08333333333333326 0.5 -0.038461538461538436 -0.3 0.375 0.5 -0.125 0.30000000000000005 -0.09999999999999998 0.13636363636363635 -0.08333333333333337 0.5 
1 -0.19999999999999996 -0.3666666666666667 -0.09999999999999998 -0.05555555555555558 -0.16666666666666669 0.13636363636363635 0.03846153846153855 0.0 0.125 0.045454545454545414 0.25 0.10000000000000009 -0.3 0.2272727272727273 0.0 0.25 
1 -0.09999999999999998 0.033333333333333326 0.10000000000000009 0.16666666666666663 -0.16666666666666669 0.31818181818181824 0.03846153846153855 -0.19999999999999996 0.25 0.40909090909090917 -0.125 0.10000000000000009 -0.19999999999999996 0.13636363636363635 -0.16666666666666669 0.33333333333333326 
1 -0.09999999999999998 0.033333333333333326 0.10000000000000009 0.16666666666666663 0.08333333333333326 -0.045454545454545414 -0.038461538461538436 -0.09999999999999998 0.0 0.13636363636363635 0.25 0.4 0.30000000000000005 0.5 0.08333333333333326 0.0 
0 -0.4 -0.5 -0.4 -0.3888888888888889 -0.4166666666666667 0.13636363636363635 0.03846153846153855 0.20000000000000007 0.0 0.045454545454545414 0.25 0.20000000000000007 -0.4 0.2272727272727273 0.0 0.25 
0 -0.09999999999999998 0.16666666666666663 0.0 0.38888888888888884 -0.25 -0.045454545454545414 0.1923076923076923 0.5 0.125 0.13636363636363635 0.125 0.30000000000000005 -0.19999999999999996 0.2272727272727273 0.0 0.33333333333333326 
0 0.0 0.23333333333333328 0.20000000000000007 0.38888888888888884 0.08333333333333326 0.31818181818181824 -0.038461538461538436 -0.19999999999999996 0.375 0.40909090909090917 0.0 0.30000000000000005 -0.19999999999999996 0.13636363636363635 -0.08333333333333337 0.33333333333333326 
1 -0.3 -0.3 -0.19999999999999996 -0.3888888888888889 -0.33333333333333337 0.2272727272727273 0.11538461538461542 -0.19999999999999996 0.125 0.31818181818181824 0.125 0.20000000000000007 -0.3 0.13636363636363635 -0.16666666666666669 0.33333333333333326 
0 0.0 0.16666666666666663 0.20000000000000007 0.38888888888888884 0.08333333333333326 0.13636363636363635 0.03846153846153855 0.30000000000000005 0.375 0.045454545454545414 0.25 0.10000000000000009 -0.3 0.2272727272727273 0.16666666666666663 0.33333333333333326 
1 -0.09999999999999998 0.09999999999999998 0.0 0.2777777777777777 -0.25 0.045454545454545414 0.2692307692307693 0.4 0.0 0.13636363636363635 0.125 0.30000000000000005 -0.19999999999999996 0.2272727272727273 0.0 0.41666666666666663 
0 -0.19999999999999996 -0.09999999999999998 0.0 -0.05555555555555558 -0.25 0.31818181818181824 0.11538461538461542 -0.09999999999999998 0.25 0.40909090909090917 -0.25 0.20000000000000007 -0.19999999999999996 0.045454545454545414 -0.16666666666666669 0.41666666666666663 
0 -0.4 -0.3 -0.3 -0.2777777777777778 -0.33333333333333337 0.13636363636363635 0.03846153846153855 0.0 0.125 0.13636363636363635 0.25 0.10000000000000009 -0.3 0.2272727272727273 -0.16666666666666669 0.33333333333333326 
0 0.30000000000000005 0.5 0.10000000000000009 0.38888888888888884 -0.16666666666666669 0.31818181818181824 -0.038461538461538436 0.10000000000000009 0.125 0.40909090909090917 0.0 0.4 0.10000000000000009 0.045454545454545414 0.08333333333333326 0.41666666666666663 
1 -0.09999999999999998 -0.16666666666666669 0.0 0.2777777777777777 -0.25 -0.045454545454545414 0.42307692307692313 0.30000000000000005 0.0 0.13636363636363635 -0.25 0.4 -0.19999999999999996 0.13636363636363635 0.0 0.41666666666666663 
1 -0.09999999999999998 0.033333333333333326 0.10000000000000009 0.16666666666666663 -0.08333333333333337 0.40909090909090917 0.03846153846153855 -0.3 0.25 0.5 -0.25 0.20000000000000007 -0.09999999999999998 0.13636363636363635 -0.25 0.33333333333333326 
0 -0.19999999999999996 0.09999999999999998 -0.09999999999999998 0.16666666666666663 -0.25 -0.045454545454545414 0.34615384615384626 0.30000000000000005 0.0 0.13636363636363635 -0.125 0.4 -0.19999999999999996 0.13636363636363635 0.0 0.41666666666666663 
0 -0.09999999999999998 0.033333333333333326 -0.09999999999999998 0.16666666666666663 -0.08333333333333337 0.045454545454545414 0.11538461538461542 0.30000000000000005 0.25 0.13636363636363635 0.125 0.20000000000000007 -0.3 0.2272727272727273 0.08333333333333326 0.25 
1 -0.4 -0.5 -0.3 -0.3888888888888889 -0.4166666666666667 0.13636363636363635 0.03846153846153855 0.20000000000000007 0.125 0.045454545454545414 0.25 0.20000000000000007 -0.4 0.2272727272727273 0.08333333333333326 0.25 
1 0.0 0.033333333333333326 0.30000000000000005 0.2777777777777777 0.25 0.2272727272727273 0.03846153846153855 -0.09999999999999998 0.0 0.2272727272727273 0.125 0.20000000000000007 0.20000000000000007 0.2272727272727273 0.0 -0.08333333333333337 
0 0.0 0.033333333333333326 0.10000000000000009 0.16666666666666663 -0.08333333333333337 0.31818181818181824 0.11538461538461542 0.20000000000000007 0.5 0.13636363636363635 0.125 0.0 -0.3 0.2272727272727273 0.16666666666666663 0.25 
1 -0.09999999999999998 0.16666666666666663 0.10000000000000009 0.38888888888888884 0.0 0.13636363636363635 0.03846153846153855 0.10000000000000009 0.25 0.13636363636363635 0.25 0.20000000000000007 -0.19999999999999996 0.13636363636363635 -0.08333333333333337 0.25 
0 0.10000000000000009 0.23333333333333328 0.10000000000000009 0.38888888888888884 -0.08333333333333337 0.045454545454545414 -0.038461538461538436 0.4 0.375 0.045454545454545414 0.25 0.20000000000000007 -0.3 0.2272727272727273 0.33333333333333326 0.33333333333333326 
0 -0.09999999999999998 -0.3 -0.09999999999999998 0.05555555555555558 -0.25 0.045454545454545414 0.03846153846153855 0.30000000000000005 0.25 0.13636363636363635 0.25 0.10000000000000009 -0.3 0.2272727272727273 0.25 0.33333333333333326 
0 0.10000000000000009 0.09999999999999998 0.0 -0.05555555555555558 -0.25 0.40909090909090917 -0.038461538461538436 0.10000000000000009 0.125 0.5 0.0 0.4 0.0 0.13636363636363635 0.0 0.41666666666666663 
1 -0.09999999999999998 -0.033333333333333326 0.10000000000000009 0.05555555555555558 0.0 0.13636363636363635 0.03846153846153855 -0.19999999999999996 0.0 0.13636363636363635 0.25 0.30000000000000005 0.10000000000000009 0.31818181818181824 0.0 -0.08333333333333337 
0 -0.3 -0.09999999999999998 -0.19999999999999996 -0.05555555555555558 -0.25 -0.045454545454545414 0.2692307692307693 0.20000000000000007 0.0 0.13636363636363635 0.0 0.4 -0.3 0.045454545454545414 -0.08333333333333337 0.41666666666666663 
0 -0.09999999999999998 0.23333333333333328 0.0 0.38888888888888884 0.08333333333333326 0.045454545454545414 0.11538461538461542 0.4 0.25 0.13636363636363635 0.125 0.20000000000000007 -0.3 0.13636363636363635 0.16666666666666663 0.33333333333333326 
0 0.0 0.033333333333333326 0.20000000000000007 0.16666666666666663 0.0 0.31818181818181824 0.03846153846153855 -0.19999999999999996 0.125 0.40909090909090917 0.125 0.10000000000000009 -0.3 0.2272727272727273 -0.08333333333333337 0.25 
0 -0.4 -0.5 -0.4 -0.5 -0.5 0.13636363636363635 0.03846153846153855 0.10000000000000009 0.0 0.13636363636363635 0.25 0.20000000000000007 -0.4 0.2272727272727273 -0.08333333333333337 0.25 
1 0.20000000000000007 0.16666666666666663 0.4 0.2777777777777777 0.08333333333333326 0.31818181818181824 -0.038461538461538436 -0.09999999999999998 0.375 0.31818181818181824 0.125 0.10000000000000009 -0.3 0.2272727272727273 0.08333333333333326 0.33333333333333326 
0 0.0 0.16666666666666663 0.20000000000000007 0.38888888888888884 0.08333333333333326 0.045454545454545414 0.11538461538461542 0.0 0.25 0.045454545454545414 0.125 0.30000000000000005 -0.19999999999999996 0.045454545454545414 -0.08333333333333337 0.16666666666666663 
0 0.10000000000000009 0.23333333333333328 0.4 0.38888888888888884 0.25 0.2272727272727273 0.11538461538461542 -0.09999999999999998 0.25 0.40909090909090917 0.125 0.10000000000000009 0.0 0.045454545454545414 0.08333333333333326 0.33333333333333326 
0 0.0 0.23333333333333328 0.20000000000000007 0.38888888888888884 0.25 0.2272727272727273 0.11538461538461542 0.10000000000000009 0.25 0.13636363636363635 0.25 0.10000000000000009 -0.3 0.2272727272727273 0.0 0.25 
1 -0.3 -0.23333333333333334 -0.19999999999999996 -0.2777777777777778 -0.33333333333333337 0.31818181818181824 0.03846153846153855 -0.19999999999999996 0.125 0.40909090909090917 0.125 0.20000000000000007 -0.3 0.2272727272727273 -0.16666666666666669 0.25 
1 -0.09999999999999998 0.16666666666666663 -0.09999999999999998 0.2777777777777777 -0.08333333333333337 -0.045454545454545414 0.2692307692307693 0.20000000000000007 -0.125 0.13636363636363635 0.0 0.4 -0.3 0.045454545454545414 -0.08333333333333337 0.41666666666666663 
0 -0.19999999999999996 -0.3 -0.19999999999999996 -0.05555555555555558 -0.33333333333333337 -0.045454545454545414 0.2692307692307693 0.30000000000000005 0.0 0.13636363636363635 0.0 0.30000000000000005 -0.3 0.13636363636363635 -0.08333333333333337 0.41666666666666663 
0 -0.09999999999999998 0.09999999999999998 0.0 0.2777777777777777 -0.08333333333333337 0.2272727272727273 -0.038461538461538436 0.20000000000000007 0.375 0.045454545454545414 0.25 0.10000000000000009 -0.3 0.2272727272727273 0.08333333333333326 0.33333333333333326 
1 -0.19999999999999996 -0.16666666666666669 0.0 -0.05555555555555558 -0.25 0.31818181818181824 0.03846153846153855 -0.19999999999999996 0.125 0.40909090909090917 0.0 0.10000000000000009 -0.19999999999999996 0.13636363636363635 -0.16666666666666669 0.25 
1 -0.09999999999999998 0.16666666666666663 0.10000000000000009 0.2777777777777777 -0.08333333333333337 0.13636363636363635 0.11538461538461542 0.10000000000000009 0.125 0.2272727272727273 0.125 0.4 -0.19999999999999996 0.045454545454545414 0.0 0.41666666666666663 
0 -0.19999999999999996 -0.09999999999999998 0.0 -0.05555555555555558 -0.08333333333333337 0.31818181818181824 0.03846153846153855 -0.09999999999999998 -0.125 0.045454545454545414 0.375 0.20000000000000007 0.0 0.40909090909090917 0.08333333333333326 0.08333333333333326 
0 -0.09999999999999998 0.033333333333333326 0.10000000000000009 0.16666666666666663 -0.08333333333333337 0.2272727272727273 0.03846153846153855 0.0 0.25 0.31818181818181824 0.25 0.10000000000000009 -0.3 0.2272727272727273 0.08333333333333326 0.16666666666666663 
0 -0.09999999999999998 0.033333333333333326 0.0 0.16666666666666663 -0.08333333333333337 0.40909090909090917 -0.038461538461538436 -0.19999999999999996 0.25 0.40909090909090917 0.0 0.20000000000000007 -0.19999999999999996 0.2272727272727273 -0.16666666666666669 0.41666666666666663 
0 -0.3 -0.3 -0.19999999999999996 -0.3888888888888889 -0.33333333333333337 0.2272727272727273 0.03846153846153855 -0.3 0.125 0.40909090909090917 0.125 0.10000000000000009 -0.3 0.2272727272727273 -0.16666666666666669 0.25 
1 -0.09999999999999998 0.16666666666666663 -0.09999999999999998 0.38888888888888884 -0.08333333333333337 -0.045454545454545414 0.2692307692307693 0.20000000000000007 0.0 0.13636363636363635 0.0 0.4 -0.3 0.13636363636363635 -0.08333333333333337 0.41666666666666663 
1 -0.19999999999999996 -0.09999999999999998 0.0 0.05555555555555558 -0.08333333333333337 0.13636363636363635 0.11538461538461542 -0.19999999999999996 -0.125 0.13636363636363635 0.125 0.30000000000000005 0.10000000000000009 0.2272727272727273 -0.08333333333333337 0.08333333333333326 
0 -0.4 -0.43333333333333335 -0.3 -0.3888888888888889 -0.4166666666666667 0.13636363636363635 0.03846153846153855 0.20000000000000007 0.125 0.045454545454545414 0.25 0.20000000000000007 -0.4 0.2272727272727273 0.08333333333333326 0.25 
1 -0.09999999999999998 0.033333333333333326 0.0 0.16666666666666663 -0.16666666666666669 0.2272727272727273 0.1923076923076923 -0.09999999999999998 0.25 0.2272727272727273 0.0 0.4 -0.19999999999999996 0.045454545454545414 -0.08333333333333337 0.41666666666666663 
0 0.0 0.033333333333333326 0.20000000000000007 0.16666666666666663 0.0 0.40909090909090917 -0.038461538461538436 -0.19999999999999996 0.25 0.40909090909090917 0.0 0.20000000000000007 -0.09999999999999998 0.13636363636363635 -0.08333333333333337 0.33333333333333326 
0 -0.3 -0.23333333333333334 -0.09999999999999998 -0.16666666666666669 -0.25 0.2272727272727273 0.03846153846153855 -0.19999999999999996 0.125 0.40909090909090917 0.25 0.20000000000000007 -0.3 0.2272727272727273 -0.16666666666666669 0.25 
0 -0.19999999999999996 -0.09999999999999998 0.0 -0.05555555555555558 -0.16666666666666669 0.2272727272727273 0.03846153846153855 0.10000000000000009 0.25 0.13636363636363635 0.25 0.0 -0.3 0.2272727272727273 0.08333333333333326 0.33333333333333326 
1 -0.09999999999999998 0.09999999999999998 0.0 0.16666666666666663 -0.16666666666666669 0.40909090909090917 -0.038461538461538436 -0.09999999999999998 0.125 0.40909090909090917 -0.125 0.20000000000000007 -0.19999999999999996 0.13636363636363635 -0.16666666666666669 0.41666666666666663 
1 -0.3 -0.16666666666666669 -0.09999999999999998 -0.05555555555555558 -0.25 0.2272727272727273 0.03846153846153855 -0.19999999999999996 0.125 0.40909090909090917 0.125 0.10000000000000009 -0.3 0.2272727272727273 -0.16666666666666669 0.25 
0 -0.19999999999999996 -0.16666666666666669 0.0 -0.05555555555555558 -0.25 0.31818181818181824 0.03846153846153855 -0.09999999999999998 0.125 0.31818181818181824 0.0 0.20000000000000007 -0.19999999999999996 0.13636363636363635 -0.16666666666666669 0.33333333333333326 
1 0.4 0.23333333333333328 0.20000000000000007 0.16666666666666663 -0.16666666666666669 0.2272727272727273 0.03846153846153855 0.0 0.125 0.40909090909090917 0.0 0.4 0.10000000000000009 -0.045454545454545414 0.0 0.41666666666666663 
0 -0.19999999999999996 -0.09999999999999998 -0.09999999999999998 -0.05555555555555558 -0.16666666666666669 0.2272727272727273 0.03846153846153855 -0.09999999999999998 0.125 0.31818181818181824 0.125 0.10000000000000009 -0.3 0.2272727272727273 -0.08333333333333337 0.25 
0 -0.09999999999999998 -0.033333333333333326 0.10000000000000009 0.05555555555555558 -0.16666666666666669 0.40909090909090917 0.03846153846153855 -0.19999999999999996 0.25 0.5 -0.25 0.10000000000000009 -0.19999999999999996 0.13636363636363635 -0.16666666666666669 0.33333333333333326 
1 0.0 0.09999999999999998 0.30000000000000005 0.2777777777777777 0.08333333333333326 0.40909090909090917 -0.038461538461538436 -0.19999999999999996 0.25 0.40909090909090917 0.0 0.10000000000000009 -0.3 0.2272727272727273 -0.08333333333333337 0.33333333333333326 
1 0.10000000000000009 0.09999999999999998 0.4 0.2777777777777777 0.08333333333333326 0.31818181818181824 0.03846153846153855 -0.09999999999999998 0.25 0.40909090909090917 -0.125 0.20000000000000007 -0.19999999999999996 0.045454545454545414 -0.16666666666666669 0.41666666666666663 
1 -0.3 -0.3 -0.19999999999999996 -0.2777777777777778 -0.33333333333333337 0.13636363636363635 0.03846153846153855 0.0 0.0 0.31818181818181824 0.125 0.20000000000000007 -0.3 0.13636363636363635 -0.25 0.33333333333333326 
1 -0.09999999999999998 0.09999999999999998 0.10000000000000009 0.2777777777777777 0.0 0.2272727272727273 0.03846153846153855 0.20000000000000007 -0.125 0.2272727272727273 0.125 0.20000000000000007 -0.09999999999999998 0.13636363636363635 0.08333333333333326 0.33333333333333326 
0 -0.09999999999999998 0.23333333333333328 0.0 0.38888888888888884 -0.16666666666666669 0.045454545454545414 0.03846153846153855 0.4 0.375 0.13636363636363635 0.25 0.20000000000000007 -0.3 0.2272727272727273 0.25 0.33333333333333326 
1 -0.3 -0.3 -0.09999999999999998 -0.2777777777777778 -0.33333333333333337 0.31818181818181824 0.03846153846153855 -0.3 0.125 0.40909090909090917 -0.125 0.10000000000000009 -0.3 0.13636363636363635 -0.25 0.25 
1 -0.19999999999999996 -0.43333333333333335 -0.19999999999999996 -0.2777777777777778 -0.33333333333333337 0.13636363636363635 0.03846153846153855 0.0 0.125 0.045454545454545414 0.25 0.10000000000000009 -0.3 0.2272727272727273 0.0 0.25 
0 -0.3 -0.033333333333333326 -0.19999999999999996 0.05555555555555558 -0.33333333333333337 0.045454545454545414 0.03846153846153855 0.30000000000000005 0.25 0.13636363636363635 0.25 0.20000000000000007 -0.3 0.2272727272727273 0.16666666666666663 0.33333333333333326 
1 0.0 -0.09999999999999998 0.20000000000000007 0.16666666666666663 0.16666666666666663 0.2272727272727273 0.03846153846153855 0.0 0.0 0.13636363636363635 0.25 0.30000000000000005 0.20000000000000007 0.31818181818181824 0.16666666666666663 -0.16666666666666669 
0 -0.19999999999999996 -0.033333333333333326 -0.19999999999999996 0.05555555555555558 -0.25 0.045454545454545414 0.03846153846153855 0.4 0.25 0.13636363636363635 0.25 0.20000000000000007 -0.3 0.2272727272727273 0.16666666666666663 0.33333333333333326 
0 -0.19999999999999996 -0.23333333333333334 -0.09999999999999998 0.16666666666666663 -0.25 0.045454545454545414 -0.038461538461538436 0.4 0.375 0.045454545454545414 0.375 0.20000000000000007 -0.3 0.2272727272727273 0.25 0.33333333333333326 
1 0.0 0.23333333333333328 0.10000000000000009 0.38888888888888884 -0.25 -0.045454545454545414 0.2692307692307693 0.4 0.0 0.13636363636363635 0.0 0.30000000000000005 -0.19999999999999996 0.13636363636363635 0.0 0.41666666666666663 
1 0.5 0.5 0.30000000000000005 0.38888888888888884 -0.08333333333333337 0.13636363636363635 0.03846153846153855 0.0 0.125 0.31818181818181824 0.125 0.4 0.20000000000000007 -0.045454545454545414 0.08333333333333326 0.41666666666666663 
0 0.10000000000000009 0.09999999999999998 0.30000000000000005 0.2777777777777777 0.16666666666666663 0.2272727272727273 0.03846153846153855 0.0 0.25 0.31818181818181824 0.25 0.10000000000000009 -0.09999999999999998 0.40909090909090917 0.0 0.25 
0 -0.19999999999999996 -0.033333333333333326 -0.19999999999999996 0.05555555555555558 -0.25 0.045454545454545414 0.11538461538461542 0.30000000000000005 0.25 0.13636363636363635 0.125 0.20000000000000007 -0.3 0.2272727272727273 0.25 0.33333333333333326 
0 0.0 0.033333333333333326 0.20000000000000007 0.16666666666666663 0.25 0.2272727272727273 0.11538461538461542 0.0 -0.125 0.13636363636363635 0.375 0.20000000000000007 0.10000000000000009 0.40909090909090917 0.25 0.25 
1 0.4 0.3666666666666667 0.20000000000000007 0.2777777777777777 -0.16666666666666669 0.31818181818181824 -0.11538461538461537 0.0 0.25 0.31818181818181824 0.0 0.4 0.10000000000000009 0.045454545454545414 0.08333333333333326 0.41666666666666663 
1 0.10000000000000009 0.23333333333333328 0.10000000000000009 0.38888888888888884 0.08333333333333326 -0.045454545454545414 0.2692307692307693 0.30000000000000005 -0.125 0.13636363636363635 0.0 0.30000000000000005 -0.3 0.13636363636363635 -0.08333333333333337 0.41666666666666663 
0 0.10000000000000009 0.09999999999999998 0.0 -0.05555555555555558 -0.16666666666666669 0.31818181818181824 0.03846153846153855 -0.19999999999999996 0.125 0.40909090909090917 0.125 0.20000000000000007 0.10000000000000009 0.045454545454545414 0.08333333333333326 0.25 
1 0.0 0.23333333333333328 0.0 0.38888888888888884 -0.16666666666666669 0.045454545454545414 0.11538461538461542 0.5 0.375 0.13636363636363635 0.125 0.20000000000000007 -0.19999999999999996 0.2272727272727273 0.25 0.33333333333333326 
1 0.30000000000000005 0.3666666666666667 0.10000000000000009 0.38888888888888884 -0.16666666666666669 0.40909090909090917 -0.038461538461538436 0.10000000000000009 0.0 0.40909090909090917 -0.25 0.4 0.20000000000000007 -0.045454545454545414 0.0 0.33333333333333326 
0 -0.09999999999999998 0.16666666666666663 0.10000000000000009 0.38888888888888884 0.16666666666666663 0.2272727272727273 0.03846153846153855 0.10000000000000009 0.25 0.045454545454545414 0.25 0.10000000000000009 -0.19999999999999996 0.31818181818181824 0.0 0.33333333333333326 
0 -0.09999999999999998 0.033333333333333326 0.0 0.16666666666666663 -0.08333333333333337 0.13636363636363635 0.03846153846153855 0.10000000000000009 0.0 0.045454545454545414 0.125 0.10000000000000009 -0.19999999999999996 0.2272727272727273 0.0 0.0 
1 -0.19999999999999996 -0.033333333333333326 0.0 0.05555555555555558 -0.16666666666666669 0.31818181818181824 0.03846153846153855 -0.09999999999999998 0.125 0.40909090909090917 0.0 0.20000000000000007 -0.19999999999999996 0.13636363636363635 -0.16666666666666669 0.41666666666666663 
1 0.10000000000000009 0.16666666666666663 0.30000000000000005 0.38888888888888884 0.0 0.13636363636363635 0.1923076923076923 0.0 0.5 -0.045454545454545414 0.0 0.5 0.0 -0.13636363636363635 0.08333333333333326 0.25 
0 0.0 0.16666666666666663 0.20000000000000007 0.2777777777777777 0.08333333333333326 0.5 -0.038461538461538436 -0.3 0.25 0.40909090909090917 -0.125 0.20000000000000007 -0.09999999999999998 0.13636363636363635 0.0 0.41666666666666663 
1 0.0 0.09999999999999998 0.0 -0.05555555555555558 -0.16666666666666669 0.2272727272727273 0.03846153846153855 -0.19999999999999996 0.0 0.31818181818181824 0.0 0.30000000000000005 0.0 0.2272727272727273 0.0 0.16666666666666663 
0 -0.3 -0.43333333333333335 -0.19999999999999996 -0.2777777777777778 -0.33333333333333337 0.13636363636363635 0.03846153846153855 -0.09999999999999998 0.125 0.045454545454545414 0.25 0.0 -0.3 0.2272727272727273 -0.08333333333333337 0.25 
1 -0.09999999999999998 0.033333333333333326 0.0 0.16666666666666663 -0.25 0.045454545454545414 0.5 0.30000000000000005 0.0 0.13636363636363635 -0.25 0.4 -0.19999999999999996 0.13636363636363635 0.0 0.33333333333333326 
1 -0.09999999999999998 0.16666666666666663 0.0 0.2777777777777777 -0.25 -0.045454545454545414 0.34615384615384626 0.30000000000000005 0.0 0.13636363636363635 -0.125 0.4 -0.19999999999999996 0.13636363636363635 0.0 0.41666666666666663 
0 -0.19999999999999996 -0.23333333333333334 -0.09999999999999998 -0.16666666666666669 -0.25 0.2272727272727273 0.03846153846153855 0.0 0.25 0.13636363636363635 0.25 0.10000000000000009 -0.3 0.2272727272727273 0.0 0.33333333333333326 
0 0.30000000000000005 0.30000000000000005 0.10000000000000009 0.16666666666666663 -0.16666666666666669 0.31818181818181824 -0.038461538461538436 0.0 0.25 0.5 0.0 0.4 0.10000000000000009 0.13636363636363635 0.08333333333333326 0.33333333333333326 
1 -0.09999999999999998 0.033333333333333326 -0.09999999999999998 0.16666666666666663 -0.16666666666666669 -0.045454545454545414 0.2692307692307693 0.20000000000000007 -0.125 0.13636363636363635 0.0 0.4 -0.3 0.13636363636363635 -0.08333333333333337 0.41666666666666663 
0 -0.3 -0.3 -0.19999999999999996 -0.2777777777777778 -0.33333333333333337 0.2272727272727273 0.03846153846153855 -0.3 0.125 0.5 0.125 0.20000000000000007 -0.3 0.2272727272727273 -0.33333333333333337 0.25 
0 -0.19999999999999996 -0.09999999999999998 -0.19999999999999996 -0.05555555555555558 -0.25 0.045454545454545414 0.11538461538461542 0.4 0.25 0.13636363636363635 0.25 0.20000000000000007 -0.3 0.2272727272727273 0.16666666666666663 0.33333333333333326 
1 -0.09999999999999998 0.16666666666666663 0.0 0.38888888888888884 -0.16666666666666669 0.045454545454545414 -0.038461538461538436 0.5 0.375 0.045454545454545414 0.375 0.20000000000000007 -0.3 0.2272727272727273 0.25 0.25 
0 -0.09999999999999998 0.09999999999999998 -0.09999999999999998 0.16666666666666663 0.0 0.045454545454545414 0.11538461538461542 0.30000000000000005 0.25 0.13636363636363635 0.125 0.20000000000000007 -0.3 0.13636363636363635 0.08333333333333326 0.25 
0 -0.09999999999999998 -0.033333333333333326 0.10000000000000009 0.16666666666666663 0.08333333333333326 0.2272727272727273 -0.038461538461538436 0.0 0.0 0.13636363636363635 0.25 0.30000000000000005 0.10000000000000009 0.31818181818181824 0.08333333333333326 0.08333333333333326 
0 -0.09999999999999998 0.09999999999999998 0.10000000000000009 0.2777777777777777 -0.16666666666666669 0.40909090909090917 0.03846153846153855 -0.19999999999999996 0.25 0.5 -0.25 0.20000000000000007 -0.19999999999999996 0.045454545454545414 -0.25 0.25 
1 -0.19999999999999996 -0.09999999999999998 -0.19999999999999996 -0.05555555555555558 -0.33333333333333337 0.045454545454545414 0.1923076923076923 0.4 0.0 0.13636363636363635 0.0 0.20000000000000007 -0.3 0.13636363636363635 -0.08333333333333337 0.33333333333333326 
1 0.30000000000000005 0.23333333333333328 0.10000000000000009 0.16666666666666663 -0.16666666666666669 0.31818181818181824 0.03846153846153855 0.10000000000000009 0.375 0.40909090909090917 0.0 0.30000000000000005 0.10000000000000009 0.045454545454545414 0.0 0.33333333333333326 
1 -0.09999999999999998 0.09999999999999998 0.10000000000000009 0.2777777777777777 0.08333333333333326 0.045454545454545414 0.11538461538461542 0.0 0.25 0.13636363636363635 0.125 0.20000000000000007 -0.19999999999999996 0.13636363636363635 -0.08333333333333337 0.25 
0 -0.4 -0.3 -0.3 -0.3888888888888889 -0.4166666666666667 0.2272727272727273 0.11538461538461542 -0.09999999999999998 0.0 0.31818181818181824 0.125 0.20000000000000007 -0.3 0.045454545454545414 -0.16666666666666669 0.25 
1 0.0 -0.033333333333333326 0.20000000000000007 0.05555555555555558 -0.16666666666666669 0.40909090909090917 0.03846153846153855 -0.19999999999999996 0.25 0.40909090909090917 -0.25 0.10000000000000009 -0.19999999999999996 0.045454545454545414 -0.16666666666666669 0.33333333333333326 
1 0.10000000000000009 0.09999999999999998 0.10000000000000009 -0.05555555555555558 -0.16666666666666669 -0.045454545454545414 0.11538461538461542 -0.19999999999999996 0.125 0.13636363636363635 0.0 0.5 -0.09999999999999998 0.13636363636363635 -0.08333333333333337 0.08333333333333326 
1 -0.19999999999999996 0.09999999999999998 -0.09999999999999998 0.16666666666666663 -0.25 -0.045454545454545414 0.34615384615384626 0.30000000000000005 0.0 0.13636363636363635 0.0 0.4 -0.19999999999999996 0.13636363636363635 0.0 0.41666666666666663 
1 -0.19999999999999996 -0.23333333333333334 0.0 -0.2777777777777778 -0.25 0.2272727272727273 0.11538461538461542 -0.19999999999999996 0.125 0.31818181818181824 0.125 0.20000000000000007 -0.19999999999999996 0.045454545454545414 -0.16666666666666669 0.33333333333333326 
1 -0.09999999999999998 0.09999999999999998 0.0 0.16666666666666663 -0.16666666666666669 0.31818181818181824 0.11538461538461542 0.10000000000000009 0.25 0.2272727272727273 0.125 0.20000000000000007 -0.19999999999999996 0.2272727272727273 -0.08333333333333337 0.33333333333333326 
0 -0.3 -0.23333333333333334 -0.19999999999999996 -0.16666666666666669 -0.33333333333333337 0.2272727272727273 0.03846153846153855 -0.19999999999999996 0.125 0.31818181818181824 0.25 0.10000000000000009 -0.19999999999999996 0.2272727272727273 -0.08333333333333337 0.25 
1 -0.09999999999999998 0.033333333333333326 0.20000000000000007 0.2777777777777777 0.16666666666666663 0.31818181818181824 0.11538461538461542 -0.09999999999999998 0.0 0.13636363636363635 0.0 0.20000000000000007 0.10000000000000009 0.13636363636363635 0.0 -0.16666666666666669 
0 -0.09999999999999998 0.09999999999999998 0.10000000000000009 0.16666666666666663 0.08333333333333326 0.2272727272727273 -0.038461538461538436 0.10000000000000009 0.25 0.045454545454545414 0.25 0.0 -0.3 0.2272727272727273 0.0 0.33333333333333326 
1 -0.19999999999999996 -0.09999999999999998 0.0 -0.05555555555555558 -0.16666666666666669 0.31818181818181824 0.03846153846153855 -0.19999999999999996 0.125 0.40909090909090917 -0.125 0.20000000000000007 -0.19999999999999996 0.13636363636363635 -0.25 0.33333333333333326 
0 0.10000000000000009 0.16666666666666663 0.30000000000000005 0.38888888888888884 0.08333333333333326 0.2272727272727273 0.11538461538461542 0.10000000000000009 0.25 0.045454545454545414 0.125 0.20000000000000007 -0.19999999999999996 0.045454545454545414 0.0 0.25 
1 -0.09999999999999998 -0.09999999999999998 0.10000000000000009 -0.05555555555555558 0.0 0.2272727272727273 0.11538461538461542 -0.09999999999999998 0.0 0.045454545454545414 0.375 0.30000000000000005 0.10000000000000009 0.40909090909090917 0.08333333333333326 0.0 
0 -0.19999999999999996 -0.16666666666666669 0.0 -0.16666666666666669 -0.25 0.31818181818181824 -0.038461538461538436 -0.3 0.25 0.40909090909090917 0.0 0.20000000000000007 -0.09999999999999998 0.13636363636363635 0.0 0.25 
0 0.0 0.16666666666666663 0.0 0.38888888888888884 0.0 0.045454545454545414 0.11538461538461542 0.4 0.125 0.045454545454545414 0.125 0.20000000000000007 -0.3 0.2272727272727273 -0.08333333333333337 0.41666666666666663 
0 0.10000000000000009 0.16666666666666663 0.30000000000000005 0.2777777777777777 0.0 0.5 -0.11538461538461537 -0.19999999999999996 0.375 0.5 -0.125 0.20000000000000007 -0.19999999999999996 0.2272727272727273 0.0 0.5 
1 0.0 0.23333333333333328 0.0 0.38888888888888884 -0.16666666666666669 0.045454545454545414 -0.038461538461538436 0.5 0.375 0.045454545454545414 0.375 0.20000000000000007 -0.3 0.2272727272727273 0.25 0.33333333333333326 
1 -0.19999999999999996 -0.23333333333333334 0.0 -0.16666666666666669 -0.25 0.2272727272727273 0.11538461538461542 -0.19999999999999996 0.125 0.31818181818181824 0.125 0.20000000000000007 -0.19999999999999996 0.045454545454545414 -0.16666666666666669 0.33333333333333326 
0 -0.19999999999999996 -0.16666666666666669 -0.09999999999999998 -0.05555555555555558 -0.16666666666666669 0.13636363636363635 0.03846153846153855 0.0 0.25 0.045454545454545414 0.25 0.10000000000000009 -0.3 0.2272727272727273 0.08333333333333326 0.33333333333333326 
0 -0.4 -0.5 -0.3 -0.5 -0.4166666666666667 0.13636363636363635 0.11538461538461542 0.10000000000000009 0.0 0.13636363636363635 0.25 0.20000000000000007 -0.4 0.2272727272727273 0.0 0.16666666666666663 
0 0.4 0.3666666666666667 0.4 0.2777777777777777 0.0 0.40909090909090917 -0.038461538461538436 -0.09999999999999998 0.125 0.40909090909090917 -0.25 0.20000000000000007 0.10000000000000009 0.13636363636363635 0.0 0.25 
0 -0.09999999999999998 0.16666666666666663 0.0 0.38888888888888884 0.0 0.2272727272727273 -0.038461538461538436 0.20000000000000007 0.25 0.045454545454545414 0.25 0.10000000000000009 -0.3 0.2272727272727273 0.08333333333333326 0.25 
1 0.0 -0.23333333333333334 0.0 0.2777777777777777 -0.25 -0.045454545454545414 0.2692307692307693 0.4 -0.125 0.13636363636363635 0.125 0.30000000000000005 -0.19999999999999996 0.2272727272727273 0.0 0.41666666666666663 
1 -0.3 -0.23333333333333334 -0.3 -0.16666666666666669 -0.33333333333333337 0.13636363636363635 0.03846153846153855 0.0 0.125 0.045454545454545414 0.125 0.20000000000000007 -0.3 0.13636363636363635 -0.16666666666666669 0.16666666666666663 
1 -0.4 -0.5 -0.4 -0.5 -0.5 0.045454545454545414 0.1923076923076923 0.20000000000000007 -0.125 0.13636363636363635 0.0 0.30000000000000005 -0.3 0.045454545454545414 -0.16666666666666669 0.33333333333333326 
0 -0.09999999999999998 0.16666666666666663 0.0 0.38888888888888884 -0.25 -0.045454545454545414 0.2692307692307693 0.4 -0.125 0.13636363636363635 0.125 0.30000000000000005 -0.19999999999999996 0.2272727272727273 0.0 0.41666666666666663 
0 -0.09999999999999998 0.09999999999999998 0.0 0.16666666666666663 0.0 0.13636363636363635 0.03846153846153855 0.10000000000000009 0.25 0.045454545454545414 0.25 0.10000000000000009 -0.3 0.2272727272727273 0.0 0.25 
0 -0.09999999999999998 -0.033333333333333326 0.0 0.05555555555555558 -0.16666666666666669 0.31818181818181824 0.03846153846153855 0.0 0.5 0.13636363636363635 0.25 0.0 -0.3 0.2272727272727273 0.0 0.25 
1 -0.19999999999999996 0.16666666666666663 -0.09999999999999998 0.38888888888888884 0.0 0.045454545454545414 0.03846153846153855 0.30000000000000005 0.125 0.13636363636363635 0.25 0.20000000000000007 -0.3 0.2272727272727273 0.08333333333333326 0.25 
1 -0.3 -0.09999999999999998 -0.09999999999999998 -0.05555555555555558 -0.16666666666666669 0.2272727272727273 0.03846153846153855 -0.19999999999999996 0.0 0.13636363636363635 0.25 0.30000000000000005 0.10000000000000009 0.2272727272727273 0.0 0.08333333333333326 
1 -0.3 -0.09999999999999998 -0.09999999999999998 -0.05555555555555558 -0.25 0.2272727272727273 0.11538461538461542 0.0 0.375 0.13636363636363635 0.25 0.10000000000000009 -0.3 0.2272727272727273 0.0 0.25 
1 0.20000000000000007 0.23333333333333328 0.10000000000000009 0.16666666666666663 -0.16666666666666669 0.2272727272727273 0.11538461538461542 0.0 0.125 0.31818181818181824 0.0 0.4 0.20000000000000007 -0.045454545454545414 0.0 0.41666666666666663 
0 0.0 0.23333333333333328 0.20000000000000007 0.38888888888888884 0.16666666666666663 0.2272727272727273 0.11538461538461542 0.30000000000000005 0.25 0.13636363636363635 0.125 0.0 -0.09999999999999998 0.045454545454545414 0.25 0.5 
0 0.0 -0.23333333333333334 0.0 0.16666666666666663 -0.16666666666666669 0.045454545454545414 0.03846153846153855 0.4 0.375 0.13636363636363635 0.25 0.20000000000000007 -0.3 0.2272727272727273 0.25 0.33333333333333326 
0 -0.19999999999999996 -0.16666666666666669 0.0 -0.16666666666666669 -0.16666666666666669 0.2272727272727273 0.03846153846153855 -0.19999999999999996 0.25 0.31818181818181824 0.25 0.10000000000000009 -0.3 0.2272727272727273 -0.08333333333333337 0.25 
0 -0.19999999999999996 -0.09999999999999998 0.0 0.05555555555555558 -0.08333333333333337 0.045454545454545414 0.11538461538461542 0.10000000000000009 0.0 0.13636363636363635 0.25 0.30000000000000005 0.10000000000000009 0.31818181818181824 0.08333333333333326 0.16666666666666663 
1 0.0 0.09999999999999998 0.20000000000000007 0.2777777777777777 -0.16666666666666669 0.40909090909090917 0.03846153846153855 -0.19999999999999996 0.25 0.5 -0.25 0.10000000000000009 -0.19999999999999996 0.13636363636363635 -0.16666666666666669 0.33333333333333326 
0 0.0 0.09999999999999998 0.20000000000000007 0.16666666666666663 0.0 0.13636363636363635 0.11538461538461542 0.10000000000000009 0.25 0.31818181818181824 0.375 0.0 -0.19999999999999996 0.13636363636363635 0.16666666666666663 0.08333333333333326 
0 0.30000000000000005 0.30000000000000005 0.30000000000000005 0.16666666666666663 0.0 0.13636363636363635 0.03846153846153855 -0.19999999999999996 0.125 0.2272727272727273 0.0 0.30000000000000005 0.20000000000000007 0.2272727272727273 0.08333333333333326 0.16666666666666663 
0 0.30000000000000005 0.43333333333333335 0.10000000000000009 0.38888888888888884 -0.08333333333333337 0.13636363636363635 0.11538461538461542 0.0 0.25 0.40909090909090917 0.125 0.30000000000000005 0.10000000000000009 0.045454545454545414 0.16666666666666663 0.41666666666666663 
0 -0.09999999999999998 -0.09999999999999998 0.20000000000000007 0.05555555555555558 0.0 0.045454545454545414 0.1923076923076923 0.0 0.25 0.2272727272727273 0.375 0.30000000000000005 0.10000000000000009 0.31818181818181824 0.08333333333333326 0.08333333333333326 
0 -0.4 -0.3 -0.19999999999999996 -0.2777777777777778 -0.33333333333333337 0.2272727272727273 0.03846153846153855 -0.3 0.0 0.40909090909090917 0.125 0.20000000000000007 -0.3 0.2272727272727273 -0.25 0.25 
0 0.10000000000000009 0.09999999999999998 0.30000000000000005 0.16666666666666663 0.0 0.5 -0.11538461538461537 -0.3 0.375 0.5 -0.125 0.20000000000000007 -0.09999999999999998 0.13636363636363635 -0.08333333333333337 0.41666666666666663 
1 -0.19999999999999996 -0.033333333333333326 0.0 0.05555555555555558 -0.16666666666666669 0.2272727272727273 0.11538461538461542 0.10000000000000009 0.25 0.13636363636363635 0.25 0.0 -0.3 0.2272727272727273 0.08333333333333326 0.33333333333333326 
1 0.0 0.16666666666666663 0.20000000000000007 0.2777777777777777 0.0 0.045454545454545414 0.03846153846153855 0.0 0.25 0.045454545454545414 0.125 0.20000000000000007 -0.19999999999999996 0.13636363636363635 -0.08333333333333337 0.16666666666666663 
1 -0.4 -0.5 -0.3 -0.3888888888888889 -0.4166666666666667 0.045454545454545414 0.2692307692307693 0.20000000000000007 -0.25 0.13636363636363635 0.125 0.30000000000000005 -0.3 0.13636363636363635 -0.16666666666666669 0.25 
1 -0.09999999999999998 0.23333333333333328 -0.09999999999999998 0.38888888888888884 -0.16666666666666669 0.045454545454545414 0.03846153846153855 0.5 0.375 0.13636363636363635 0.25 0.20000000000000007 -0.3 0.2272727272727273 0.25 0.33333333333333326 
1 -0.09999999999999998 0.033333333333333326 0.0 0.16666666666666663 -0.08333333333333337 0.2272727272727273 -0.11538461538461537 0.20000000000000007 0.0 0.13636363636363635 0.25 0.30000000000000005 -0.09999999999999998 0.13636363636363635 0.0 0.33333333333333326 
1 0.0 0.09999999999999998 0.30000000000000005 0.38888888888888884 0.33333333333333326 0.13636363636363635 0.03846153846153855 0.0 0.0 0.13636363636363635 0.25 0.30000000000000005 0.20000000000000007 0.40909090909090917 0.25 -0.08333333333333337 
1 -0.09999999999999998 -0.3 -0.09999999999999998 -0.05555555555555558 -0.33333333333333337 0.045454545454545414 0.1923076923076923 0.30000000000000005 0.0 0.045454545454545414 0.125 0.30000000000000005 -0.3 0.2272727272727273 -0.08333333333333337 0.33333333333333326 
1 -0.19999999999999996 -0.16666666666666669 0.10000000000000009 -0.05555555555555558 -0.25 0.31818181818181824 0.11538461538461542 -0.09999999999999998 0.25 0.31818181818181824 0.125 0.10000000000000009 -0.19999999999999996 0.13636363636363635 -0.16666666666666669 0.25 
0 -0.4 -0.3 -0.19999999999999996 -0.2777777777777778 -0.33333333333333337 0.2272727272727273 0.11538461538461542 -0.3 0.125 0.40909090909090917 0.25 0.10000000000000009 -0.3 0.2272727272727273 -0.16666666666666669 0.16666666666666663 
1 -0.19999999999999996 -0.23333333333333334 0.0 -0.16666666666666669 -0.25 0.2272727272727273 0.11538461538461542 -0.19999999999999996 0.125 0.31818181818181824 0.0 0.20000000000000007 -0.3 0.045454545454545414 -0.16666666666666669 0.33333333333333326 
0 -0.09999999999999998 -0.033333333333333326 -0.09999999999999998 0.05555555555555558 -0.25 0.045454545454545414 0.03846153846153855 0.30000000000000005 0.25 0.13636363636363635 0.25 0.20000000000000007 -0.3 0.2272727272727273 0.25 0.33333333333333326 
0 -0.4 -0.5 -0.4 -0.5 -0.4166666666666667 0.13636363636363635 0.11538461538461542 0.10000000000000009 0.0 0.13636363636363635 0.25 0.20000000000000007 -0.4 0.2272727272727273 0.0 0.25 
0 -0.09999999999999998 0.033333333333333326 0.10000000000000009 0.2777777777777777 0.08333333333333326 0.2272727272727273 0.03846153846153855 0.0 0.125 0.13636363636363635 0.25 0.30000000000000005 0.10000000000000009 0.31818181818181824 0.16666666666666663 -0.16666666666666669 
0 -0.3 -0.09999999999999998 -0.09999999999999998 -0.05555555555555558 -0.25 0.13636363636363635 0.03846153846153855 0.20000000000000007 0.25 0.13636363636363635 0.25 0.10000000000000009 -0.3 0.2272727272727273 0.08333333333333326 0.25 
1 0.10000000000000009 0.16666666666666663 0.0 0.05555555555555558 -0.25 0.13636363636363635 -0.038461538461538436 0.0 0.0 0.31818181818181824 0.125 0.4 0.10000000000000009 -0.045454545454545414 0.0 0.41666666666666663 
0 0.0 0.16666666666666663 0.30000000000000005 0.38888888888888884 0.5 0.2272727272727273 0.11538461538461542 0.0 -0.125 0.13636363636363635 0.375 0.20000000000000007 0.30000000000000005 0.5 0.5 0.25 
0 -0.4 -0.43333333333333335 -0.3 -0.3888888888888889 -0.4166666666666667 0.13636363636363635 0.03846153846153855 0.20000000000000007 0.125 0.13636363636363635 0.25 0.20000000000000007 -0.4 0.2272727272727273 0.0 0.16666666666666663 
1 -0.4 -0.5 -0.3 -0.3888888888888889 -0.4166666666666667 0.045454545454545414 0.1923076923076923 0.20000000000000007 -0.125 0.13636363636363635 0.125 0.20000000000000007 -0.3 0.13636363636363635 -0.16666666666666669 0.33333333333333326 
0 -0.19999999999999996 -0.16666666666666669 -0.09999999999999998 -0.16666666666666669 -0.16666666666666669 0.13636363636363635 0.03846153846153855 0.0 0.125 0.045454545454545414 0.25 0.10000000000000009 -0.3 0.2272727272727273 0.0 0.33333333333333326 
0 -0.09999999999999998 -0.16666666666666669 -0.09999999999999998 -0.16666666666666669 -0.16666666666666669 0.13636363636363635 0.03846153846153855 0.10000000000000009 0.25 0.13636363636363635 0.25 0.10000000000000009 -0.3 0.2272727272727273 0.0 0.33333333333333326 
0 -0.19999999999999996 -0.43333333333333335 -0.19999999999999996 -0.2777777777777778 -0.25 0.13636363636363635 0.03846153846153855 0.0 0.125 0.13636363636363635 0.25 0.10000000000000009 -0.3 0.2272727272727273 0.0 0.25 
1 0.0 0.09999999999999998 0.10000000000000009 0.2777777777777777 -0.08333333333333337 0.13636363636363635 0.1923076923076923 -0.09999999999999998 0.25 0.045454545454545414 0.0 0.30000000000000005 -0.09999999999999998 -0.045454545454545414 0.0 0.25 
1 -0.09999999999999998 -0.09999999999999998 0.0 -0.05555555555555558 -0.25 0.31818181818181824 0.03846153846153855 -0.09999999999999998 0.125 0.40909090909090917 -0.125 0.20000000000000007 -0.19999999999999996 0.13636363636363635 -0.16666666666666669 0.33333333333333326 
0 -0.3 -0.3 -0.3 -0.2777777777777778 -0.33333333333333337 0.13636363636363635 0.03846153846153855 0.0 0.125 0.13636363636363635 0.25 0.10000000000000009 -0.3 0.2272727272727273 -0.08333333333333337 0.25 
0 -0.19999999999999996 -0.23333333333333334 0.0 -0.16666666666666669 -0.25 0.2272727272727273 0.03846153846153855 -0.19999999999999996 0.125 0.40909090909090917 0.125 0.20000000000000007 -0.3 0.2272727272727273 -0.16666666666666669 0.25 
1 0.10000000000000009 0.30000000000000005 0.10000000000000009 0.16666666666666663 -0.08333333333333337 -0.045454545454545414 0.1923076923076923 -0.3 0.125 0.13636363636363635 0.125 0.5 -0.09999999999999998 0.13636363636363635 0.0 0.08333333333333326 
1 -0.19999999999999996 -0.033333333333333326 -0.09999999999999998 0.05555555555555558 -0.33333333333333337 -0.045454545454545414 0.34615384615384626 0.30000000000000005 0.0 0.13636363636363635 -0.125 0.4 -0.19999999999999996 0.13636363636363635 0.0 0.41666666666666663 
1 -0.09999999999999998 -0.3666666666666667 0.0 -0.05555555555555558 -0.16666666666666669 0.13636363636363635 0.11538461538461542 -0.09999999999999998 0.25 0.13636363636363635 0.125 0.20000000000000007 -0.19999999999999996 0.13636363636363635 -0.16666666666666669 0.16666666666666663 
1 0.0 0.23333333333333328 0.20000000000000007 0.38888888888888884 0.16666666666666663 0.045454545454545414 0.03846153846153855 0.0 0.25 0.045454545454545414 0.125 0.20000000000000007 -0.19999999999999996 0.13636363636363635 -0.08333333333333337 0.16666666666666663 
1 0.0 -0.16666666666666669 0.10000000000000009 0.2777777777777777 -0.25 0.045454545454545414 0.34615384615384626 0.4 0.0 0.13636363636363635 -0.125 0.30000000000000005 -0.19999999999999996 0.13636363636363635 0.0 0.41666666666666663 
0 -0.19999999999999996 -0.43333333333333335 -0.19999999999999996 -0.2777777777777778 -0.25 0.13636363636363635 0.03846153846153855 0.0 0.125 0.13636363636363635 0.25 0.10000000000000009 -0.3 0.2272727272727273 0.0 0.33333333333333326 
0 0.4 0.23333333333333328 0.10000000000000009 0.16666666666666663 -0.16666666666666669 0.2272727272727273 -0.038461538461538436 0.0 0.25 0.5 0.0 0.4 0.10000000000000009 0.13636363636363635 0.0 0.33333333333333326 
0 -0.3 -0.43333333333333335 -0.3 -0.3888888888888889 -0.33333333333333337 0.13636363636363635 0.03846153846153855 0.20000000000000007 0.125 0.045454545454545414 0.25 0.20000000000000007 -0.4 0.2272727272727273 0.08333333333333326 0.16666666666666663 
1 -0.09999999999999998 0.23333333333333328 0.10000000000000009 0.38888888888888884 0.0 0.2272727272727273 0.11538461538461542 -0.09999999999999998 0.25 0.31818181818181824 0.0 0.30000000000000005 -0.19999999999999996 0.045454545454545414 -0.08333333333333337 0.41666666666666663 
1 0.4 0.3666666666666667 0.20000000000000007 0.38888888888888884 -0.08333333333333337 0.2272727272727273 0.03846153846153855 0.0 0.125 0.31818181818181824 0.0 0.4 0.20000000000000007 -0.045454545454545414 0.08333333333333326 0.41666666666666663 
0 -0.09999999999999998 0.09999999999999998 -0.09999999999999998 -0.05555555555555558 -0.25 0.31818181818181824 0.03846153846153855 -0.19999999999999996 0.125 0.31818181818181824 -0.125 0.30000000000000005 0.0 0.13636363636363635 -0.08333333333333337 0.16666666666666663 
1 -0.09999999999999998 0.09999999999999998 -0.09999999999999998 0.2777777777777777 -0.25 0.045454545454545414 0.11538461538461542 0.4 0.125 0.045454545454545414 0.25 0.20000000000000007 -0.19999999999999996 0.2272727272727273 0.0 0.41666666666666663 
1 0.30000000000000005 0.5 0.10000000000000009 0.38888888888888884 -0.08333333333333337 0.13636363636363635 -0.11538461538461537 0.10000000000000009 0.125 0.2272727272727273 0.25 0.4 0.10000000000000009 0.045454545454545414 0.16666666666666663 0.33333333333333326 
1 0.10000000000000009 0.23333333333333328 0.4 0.38888888888888884 0.16666666666666663 0.31818181818181824 0.11538461538461542 -0.09999999999999998 0.25 0.31818181818181824 -0.125 0.20000000000000007 -0.19999999999999996 0.045454545454545414 -0.16666666666666669 0.41666666666666663 
1 -0.09999999999999998 0.033333333333333326 0.10000000000000009 0.16666666666666663 -0.08333333333333337 0.31818181818181824 0.03846153846153855 -0.09999999999999998 0.25 0.40909090909090917 0.125 0.10000000000000009 -0.3 0.2272727272727273 0.0 0.33333333333333326 
0 -0.09999999999999998 0.033333333333333326 -0.09999999999999998 0.16666666666666663 -0.16666666666666669 0.045454545454545414 0.1923076923076923 0.4 0.375 0.13636363636363635 0.125 0.20000000000000007 -0.3 0.2272727272727273 0.25 0.33333333333333326 
0 -0.19999999999999996 -0.3666666666666667 -0.09999999999999998 -0.16666666666666669 -0.25 0.2272727272727273 0.03846153846153855 0.0 0.25 0.13636363636363635 0.25 0.10000000000000009 -0.3 0.2272727272727273 0.0 0.33333333333333326 
1 -0.09999999999999998 -0.033333333333333326 0.10000000000000009 0.05555555555555558 -0.08333333333333337 0.13636363636363635 0.03846153846153855 -0.09999999999999998 0.25 0.13636363636363635 0.25 0.10000000000000009 -0.19999999999999996 0.13636363636363635 -0.08333333333333337 0.25 
1 -0.3 -0.16666666666666669 -0.09999999999999998 -0.05555555555555558 -0.25 0.13636363636363635 0.11538461538461542 0.0 0.125 0.2272727272727273 0.25 0.20000000000000007 -0.19999999999999996 0.13636363636363635 -0.08333333333333337 0.33333333333333326 
1 -0.3 -0.43333333333333335 -0.3 -0.2777777777777778 -0.33333333333333337 0.045454545454545414 0.11538461538461542 -0.09999999999999998 0.125 0.045454545454545414 0.125 0.20000000000000007 -0.3 0.13636363636363635 -0.16666666666666669 0.25 
0 -0.3 -0.3 -0.09999999999999998 -0.2777777777777778 -0.33333333333333337 0.2272727272727273 0.03846153846153855 -0.19999999999999996 0.125 0.40909090909090917 0.25 0.10000000000000009 -0.3 0.2272727272727273 -0.16666666666666669 0.25 
0 -0.09999999999999998 -0.23333333333333334 -0.09999999999999998 0.16666666666666663 -0.16666666666666669 0.13636363636363635 -0.11538461538461537 0.4 0.375 0.045454545454545414 0.375 0.20000000000000007 -0.3 0.2272727272727273 0.25 0.33333333333333326 
1 -0.4 -0.5 -0.3 -0.5 -0.4166666666666667 0.045454545454545414 0.2692307692307693 0.20000000000000007 -0.25 0.13636363636363635 0.125 0.30000000000000005 -0.3 0.13636363636363635 -0.16666666666666669 0.25 
1 -0.09999999999999998 0.033333333333333326 0.0 0.16666666666666663 0.0 0.2272727272727273 -0.038461538461538436 0.10000000000000009 -0.125 0.2272727272727273 0.25 0.30000000000000005 -0.09999999999999998 0.13636363636363635 0.0 0.41666666666666663 
0 -0.3 -0.16666666666666669 -0.09999999999999998 -0.16666666666666669 -0.25 0.31818181818181824 0.03846153846153855 -0.09999999999999998 0.125 0.31818181818181824 0.0 0.20000000000000007 -0.19999999999999996 0.13636363636363635 -0.16666666666666669 0.25 
0 0.10000000000000009 0.23333333333333328 0.30000000000000005 0.38888888888888884 0.16666666666666663 0.2272727272727273 0.03846153846153855 0.20000000000000007 0.375 0.13636363636363635 0.25 0.10000000000000009 -0.19999999999999996 0.2272727272727273 0.16666666666666663 0.41666666666666663 
0 -0.09999999999999998 -0.09999999999999998 0.10000000000000009 -0.05555555555555558 -0.16666666666666669 0.045454545454545414 0.11538461538461542 0.0 0.25 0.13636363636363635 0.125 0.20000000000000007 -0.19999999999999996 0.13636363636363635 -0.08333333333333337 0.16666666666666663 
0 0.0 0.23333333333333328 0.20000000000000007 0.38888888888888884 0.08333333333333326 0.2272727272727273 0.03846153846153855 0.20000000000000007 0.375 0.13636363636363635 0.25 0.0 -0.19999999999999996 0.2272727272727273 0.16666666666666663 0.33333333333333326 
1 -0.3 -0.23333333333333334 -0.09999999999999998 -0.16666666666666669 -0.25 0.2272727272727273 0.03846153846153855 -0.19999999999999996 0.125 0.40909090909090917 0.25 0.10000000000000009 -0.3 0.2272727272727273 -0.08333333333333337 0.16666666666666663 
0 0.0 0.16666666666666663 0.20000000000000007 0.2777777777777777 0.0 0.31818181818181824 -0.038461538461538436 -0.09999999999999998 0.375 0.31818181818181824 0.125 0.20000000000000007 -0.3 0.2272727272727273 0.0 0.33333333333333326 
1 -0.09999999999999998 0.033333333333333326 0.10000000000000009 0.16666666666666663 -0.08333333333333337 0.31818181818181824 0.03846153846153855 -0.09999999999999998 0.125 0.31818181818181824 -0.125 0.30000000000000005 -0.19999999999999996 0.13636363636363635 -0.16666666666666669 0.41666666666666663 
1 0.10000000000000009 0.30000000000000005 0.10000000000000009 0.2777777777777777 -0.08333333333333337 0.31818181818181824 0.03846153846153855 -0.19999999999999996 0.125 0.31818181818181824 0.125 0.20000000000000007 0.10000000000000009 0.13636363636363635 0.16666666666666663 0.25 
1 0.30000000000000005 0.30000000000000005 0.30000000000000005 0.16666666666666663 0.0 0.13636363636363635 0.11538461538461542 -0.19999999999999996 0.25 0.31818181818181824 -0.125 0.30000000000000005 0.10000000000000009 0.045454545454545414 0.0 0.0 
1 0.10000000000000009 0.09999999999999998 0.10000000000000009 -0.05555555555555558 -0.16666666666666669 0.045454545454545414 0.11538461538461542 -0.19999999999999996 0.125 0.13636363636363635 0.0 0.5 0.0 0.2272727272727273 0.0 0.08333333333333326 
0 0.30000000000000005 0.3666666666666667 0.20000000000000007 0.38888888888888884 0.08333333333333326 0.31818181818181824 0.03846153846153855 -0.09999999999999998 0.125 0.31818181818181824 0.125 0.20000000000000007 0.20000000000000007 0.045454545454545414 0.25 0.16666666666666663 
1 0.0 0.16666666666666663 0.20000000000000007 0.38888888888888884 0.16666666666666663 0.2272727272727273 0.03846153846153855 0.0 0.375 0.13636363636363635 0.25 0.0 -0.3 0.2272727272727273 0.0 0.33333333333333326 
0 -0.09999999999999998 0.09999999999999998 -0.09999999999999998 0.2777777777777777 0.0 0.13636363636363635 0.1923076923076923 0.30000000000000005 0.25 0.13636363636363635 0.125 0.20000000000000007 -0.3 0.13636363636363635 0.08333333333333326 0.33333333333333326 
1 -0.19999999999999996 -0.033333333333333326 0.0 0.05555555555555558 -0.08333333333333337 0.045454545454545414 0.03846153846153855 -0.19999999999999996 -0.125 0.045454545454545414 0.25 0.4 0.0 0.31818181818181824 0.08333333333333326 -0.08333333333333337 
0 -0.19999999999999996 0.09999999999999998 -0.09999999999999998 0.16666666666666663 -0.08333333333333337 0.2272727272727273 0.03846153846153855 0.10000000000000009 0.25 0.13636363636363635 0.25 0.0 -0.3 0.2272727272727273 0.08333333333333326 0.25 
0 -0.09999999999999998 0.16666666666666663 0.0 0.2777777777777777 0.08333333333333326 0.2272727272727273 0.11538461538461542 0.10000000000000009 0.25 0.13636363636363635 0.25 0.10000000000000009 0.10000000000000009 0.2272727272727273 0.0 0.33333333333333326 
0 -0.19999999999999996 0.033333333333333326 0.0 0.16666666666666663 -0.16666666666666669 0.2272727272727273 0.03846153846153855 0.20000000000000007 0.25 0.13636363636363635 0.25 0.10000000000000009 -0.3 0.2272727272727273 0.16666666666666663 0.33333333333333326 
0 0.20000000000000007 0.5 0.20000000000000007 0.38888888888888884 0.16666666666666663 0.045454545454545414 0.11538461538461542 -0.19999999999999996 0.25 0.31818181818181824 0.25 0.20000000000000007 0.30000000000000005 -0.045454545454545414 0.16666666666666663 0.0 
0 -0.09999999999999998 -0.033333333333333326 0.0 0.05555555555555558 -0.16666666666666669 0.2272727272727273 -0.038461538461538436 0.20000000000000007 0.375 0.045454545454545414 0.375 0.0 -0.3 0.31818181818181824 0.16666666666666663 0.25 
0 -0.09999999999999998 -0.033333333333333326 0.0 0.05555555555555558 -0.16666666666666669 0.045454545454545414 0.03846153846153855 0.4 0.25 0.13636363636363635 0.125 0.20000000000000007 -0.3 0.2272727272727273 0.25 0.25 
0 -0.4 -0.3 -0.19999999999999996 -0.2777777777777778 -0.33333333333333337 0.2272727272727273 0.03846153846153855 -0.19999999999999996 0.125 0.31818181818181824 0.25 0.20000000000000007 -0.3 0.2272727272727273 -0.16666666666666669 0.16666666666666663 
1 -0.3 -0.23333333333333334 -0.09999999999999998 -0.2777777777777778 -0.33333333333333337 0.2272727272727273 0.03846153846153855 -0.19999999999999996 0.125 0.40909090909090917 0.0 0.20000000000000007 -0.3 0.13636363636363635 -0.25 0.33333333333333326 
0 -0.3 -0.43333333333333335 -0.3 -0.2777777777777778 -0.4166666666666667 0.13636363636363635 0.03846153846153855 0.30000000000000005 0.125 0.045454545454545414 0.25 0.20000000000000007 -0.3 0.2272727272727273 0.08333333333333326 0.33333333333333326 
0 0.0 0.09999999999999998 0.30000000000000005 0.38888888888888884 0.25 0.13636363636363635 0.11538461538461542 0.0 0.0 0.13636363636363635 0.25 0.30000000000000005 0.20000000000000007 0.31818181818181824 0.16666666666666663 0.0 
0 -0.19999999999999996 -0.3 -0.09999999999999998 -0.05555555555555558 -0.25 0.045454545454545414 0.11538461538461542 0.30000000000000005 0.375 0.13636363636363635 0.125 0.20000000000000007 -0.3 0.2272727272727273 0.16666666666666663 0.25 
0 -0.09999999999999998 0.09999999999999998 -0.09999999999999998 0.16666666666666663 -0.25 0.045454545454545414 0.03846153846153855 0.4 0.375 0.13636363636363635 0.25 0.20000000000000007 -0.3 0.2272727272727273 0.25 0.33333333333333326 
1 -0.09999999999999998 -0.16666666666666669 0.0 -0.16666666666666669 -0.25 0.13636363636363635 0.03846153846153855 0.0 0.25 0.13636363636363635 0.125 0.10000000000000009 0.0 0.13636363636363635 -0.16666666666666669 0.16666666666666663 
0 0.0 -0.033333333333333326 0.20000000000000007 0.05555555555555558 -0.16666666666666669 0.31818181818181824 0.11538461538461542 -0.09999999999999998 0.25 0.31818181818181824 0.0 0.20000000000000007 -0.19999999999999996 0.13636363636363635 -0.08333333333333337 0.41666666666666663 
0 -0.19999999999999996 -0.033333333333333326 -0.19999999999999996 0.05555555555555558 -0.25 0.045454545454545414 0.11538461538461542 0.4 0.375 0.13636363636363635 0.125 0.20000000000000007 -0.3 0.2272727272727273 0.16666666666666663 0.25 
0 0.0 0.09999999999999998 0.20000000000000007 0.2777777777777777 0.08333333333333326 0.2272727272727273 0.03846153846153855 0.0 0.125 0.31818181818181824 0.25 0.10000000000000009 -0.19999999999999996 0.31818181818181824 0.0 0.25 
1 -0.19999999999999996 -0.033333333333333326 0.0 0.05555555555555558 -0.08333333333333337 0.13636363636363635 0.11538461538461542 0.10000000000000009 0.0 0.13636363636363635 0.125 0.10000000000000009 -0.3 0.2272727272727273 -0.08333333333333337 0.08333333333333326 
